net
{
    node_size = (100 40);
    HR_Grid_X = "10";
    HR_Grid_Y = "10";
    HR_Grid_GridSnap = "1";
    HR_Grid_GridShow = "0";
    HR_Font_Name = "Arial";
    HR_Font_Size = "-12";
    HR_Font_Weight = "400";
    HR_Font_Italic = "0";
    HR_Propagate_Auto = "0";
    HR_Propagate_AutoSum = "1";
    HR_Propagate_AutoNormal = "1";
    HR_Compile_TriangMethod = "0";
    HR_Compile_Compress = "0";
    HR_Compile_Approximate = "0";
    HR_Compile_ApproxEpsilon = "0.00001";
    HR_Monitor_AutoUpdGraph = "0";
    HR_Monitor_GraphPrecision = "100";
    HR_Monitor_OpenGraph = "0";
    HR_Monitor_InitStates = "5";
    HR_Monitor_InitSD = "2";
    HR_Color_DiscreteChance = "16";
    HR_Color_ContinuosChance = "48";
    HR_Color_Utility = "36";
    HR_Color_Decision = "17";
    HR_Groups_UserGroupsNo = "0";
    HR_Groups_GroupNames = "";
    HR_Groups_GroupColors = "";
    HRUNTIME_Grid_X = "10";
    HRUNTIME_Grid_Y = "10";
    HRUNTIME_Grid_GridSnap = "1";
    HRUNTIME_Grid_GridShow = "0";
    HRUNTIME_Font_Name = "Arial";
    HRUNTIME_Font_Size = "-12";
    HRUNTIME_Font_Weight = "400";
    HRUNTIME_Font_Italic = "0";
    HRUNTIME_Propagate_Auto = "0";
    HRUNTIME_Propagate_AutoSum = "1";
    HRUNTIME_Propagate_AutoNormal = "1";
    HRUNTIME_Compile_TriangMethod = "0";
    HRUNTIME_Compile_Compress = "0";
    HRUNTIME_Compile_Approximate = "0";
    HRUNTIME_Compile_ApproxEpsilon = "0.00001";
    HRUNTIME_Monitor_AutoUpdGraph = "0";
    HRUNTIME_Monitor_GraphPrecision = "100";
    HRUNTIME_Monitor_OpenGraph = "0";
    HRUNTIME_Monitor_InitStates = "5";
}

node Besthand
{
    position = (87 0);
    states = ("myhand" "opponent");
}

node OH2
{
    position = (169 128);
    states = ("no" "1 a" "2 v" "2 a" "fl" "st" "3 v" "stfl");
}

node MH
{
    position = (0 129);
    states = ("no" "1 a" "2 v" "2 a" "fl" "st" "3 v" "stfl");
}

node OH1
{
    position = (169 242);
    states = ("no" "1 a" "2 cons" "2 s" "2 v" "fl" "st" "3 v" "stfl");
}

node SC
{
    position = (309 185);
    states = ("0 Changed" "1 Changed" "2 Changed");
}

node OH0
{
    position = (169 355);
    states = ("no" "1a" "2 cons" "2 s" "2 v" "fl" "st" "3 v" "stfl");
}

node FC
{
    position = (309 297);
    states = ("o changed" "1 changed" "2 changed" "3 changed");
}

potential (Besthand | MH OH2)
{
 data = ((( 0.5 0.5 )	%  no  no
	  ( 0 1 )	%  no  1 a
	  ( 0 1 )	%  no  2 v
	  ( 0 1 )	%  no  2 a
	  ( 0 1 )	%  no  fl
	  ( 0 1 )	%  no  st
	  ( 0 1 )	%  no  3 v
	  ( 0 1 ))	%  no  stfl
	 (( 1 0 )	%  1 a  no
	  ( 0.5 0.5 )	%  1 a  1 a
	  ( 0 1 )	%  1 a  2 v
	  ( 0 1 )	%  1 a  2 a
	  ( 0 1 )	%  1 a  fl
	  ( 0 1 )	%  1 a  st
	  ( 0 1 )	%  1 a  3 v
	  ( 0 1 ))	%  1 a  stfl
	 (( 1 0 )	%  2 v  no
	  ( 1 0 )	%  2 v  1 a
	  ( 0.5 0.5 )	%  2 v  2 v
	  ( 0 1 )	%  2 v  2 a
	  ( 0 1 )	%  2 v  fl
	  ( 0 1 )	%  2 v  st
	  ( 0 1 )	%  2 v  3 v
	  ( 0 1 ))	%  2 v  stfl
	 (( 1 0 )	%  2 a  no
	  ( 1 0 )	%  2 a  1 a
	  ( 1 0 )	%  2 a  2 v
	  ( 0.5 0.5 )	%  2 a  2 a
	  ( 0 1 )	%  2 a  fl
	  ( 0 1 )	%  2 a  st
	  ( 0 1 )	%  2 a  3 v
	  ( 0 1 ))	%  2 a  stfl
	 (( 1 0 )	%  fl  no
	  ( 1 0 )	%  fl  1 a
	  ( 1 0 )	%  fl  2 v
	  ( 1 0 )	%  fl  2 a
	  ( 0.5 0.5 )	%  fl  fl
	  ( 0 1 )	%  fl  st
	  ( 0 1 )	%  fl  3 v
	  ( 0 1 ))	%  fl  stfl
	 (( 1 0 )	%  st  no
	  ( 1 0 )	%  st  1 a
	  ( 1 0 )	%  st  2 v
	  ( 1 0 )	%  st  2 a
	  ( 1 0 )	%  st  fl
	  ( 0.5 0.5 )	%  st  st
	  ( 0 1 )	%  st  3 v
	  ( 0 1 ))	%  st  stfl
	 (( 1 0 )	%  3 v  no
	  ( 1 0 )	%  3 v  1 a
	  ( 1 0 )	%  3 v  2 v
	  ( 1 0 )	%  3 v  2 a
	  ( 1 0 )	%  3 v  fl
	  ( 1 0 )	%  3 v  st
	  ( 0.5 0.5 )	%  3 v  3 v
	  ( 0 1 ))	%  3 v  stfl
	 (( 1 0 )	%  stfl  no
	  ( 1 0 )	%  stfl  1 a
	  ( 1 0 )	%  stfl  2 v
	  ( 1 0 )	%  stfl  2 a
	  ( 1 0 )	%  stfl  fl
	  ( 1 0 )	%  stfl  st
	  ( 1 0 )	%  stfl  3 v
	  ( 0.5 0.5 )));	%  stfl  stfl
}

potential (OH2 | SC OH1)
{
 data = ((( 1 0 0 0 0 0 0 0 )	%  0 Changed  no
	  ( 0 1 0 0 0 0 0 0 )	%  0 Changed  1 a
	  ( 1 0 0 0 0 0 0 0 )	%  0 Changed  2 cons
	  ( 1 0 0 0 0 0 0 0 )	%  0 Changed  2 s
	  ( 0 0 0.9231 0.0769 0 0 0 0 )	%  0 Changed  2 v
	  ( 0 0 0 0 1 0 0 0 )	%  0 Changed  fl
	  ( 0 0 0 0 0 1 0 0 )	%  0 Changed  st
	  ( 0 0 0 0 0 0 1 0 )	%  0 Changed  3 v
	  ( 0 0 0 0 0 0 0 1 ))	%  0 Changed  stfl
	 (( 1 0 0 0 0 0 0 0 )	%  1 Changed  no
	  ( 0 1 0 0 0 0 0 0 )	%  1 Changed  1 a
	  ( 0.5903 0.1181 0.1154 0.0096 0 0.1666 0 0 )	%  1 Changed  2 cons
	  ( 0.5121 0.1024 0.1154 0.0096 0.2188 0.0313 0 0.0104 )	%  1 Changed  2 s
	  ( 0 0 0.8838 0.0736 0 0 0.0426 0 )	%  1 Changed  2 v
	  ( 0 0 0 0 1 0 0 0 )	%  1 Changed  fl
	  ( 0 0 0 0 0 1 0 0 )	%  1 Changed  st
	  ( 0 0 0 0 0 0 1 0 )	%  1 Changed  3 v
	  ( 0 0 0 0 0 0 0 1 ))	%  1 Changed  stfl
	 (( 0.5613 0.157 0.1757 0.0055 0.0559 0.0392 0.0027 0.0027 )	%  2 Changed  no
	  ( 0 0.7183 0.0667 0.1145 0.0559 0.0392 0.0027 0.0027 )	%  2 Changed  1 a
	  ( 1 0 0 0 0 0 0 0 )	%  2 Changed  2 cons
	  ( 1 0 0 0 0 0 0 0 )	%  2 Changed  2 s
	  ( 1 0 0 0 0 0 0 0 )	%  2 Changed  2 v
	  ( 1 0 0 0 0 0 0 0 )	%  2 Changed  fl
	  ( 1 0 0 0 0 0 0 0 )	%  2 Changed  st
	  ( 1 0 0 0 0 0 0 0 )	%  2 Changed  3 v
	  ( 1 0 0 0 0 0 0 0 )));	%  2 Changed  stfl
}

potential (MH)
{
 data = ( 0.125 0.125 0.125 0.125 0.125 0.125 0.125 0.125 );
}

potential (OH1 | FC OH0)
{
 data = ((( 1 0 0 0 0 0 0 0 0 )	%  o changed  no
	  ( 0 1 0 0 0 0 0 0 0 )	%  o changed  1a
	  ( 0 0 1 0 0 0 0 0 0 )	%  o changed  2 cons
	  ( 0 0 0 1 0 0 0 0 0 )	%  o changed  2 s
	  ( 0 0 0 0 1 0 0 0 0 )	%  o changed  2 v
	  ( 0 0 0 0 0 1 0 0 0 )	%  o changed  fl
	  ( 0 0 0 0 0 0 1 0 0 )	%  o changed  st
	  ( 0 0 0 0 0 0 0 1 0 )	%  o changed  3 v
	  ( 0 0 0 0 0 0 0 0 1 ))	%  o changed  stfl
	 (( 1 0 0 0 0 0 0 0 0 )	%  1 changed  no
	  ( 0 1 0 0 0 0 0 0 0 )	%  1 changed  1a
	  ( 0 0 0.347 0.3674 0.1224 0 0.1632 0 0 )	%  1 changed  2 cons
	  ( 0 0 0 0.6224 0.1224 0.2143 0.0307 0 0.0102 )	%  1 changed  2 s
	  ( 0 0 0 0 0.9592 0 0 0.0408 0 )	%  1 changed  2 v
	  ( 0 0 1 0 0 0 0 0 0 )	%  1 changed  fl
	  ( 0 0 0 1 0 0 0 0 0 )	%  1 changed  st
	  ( 0 0 0 0 1 0 0 0 0 )	%  1 changed  3 v
	  ( 0 0 0 0 0 0.5 0.5 0 0 ))	%  1 changed  stfl
	 (( 1 0 0 0 0 0 0 0 0 )	%  2 changed  no
	  ( 0 0.1814 0.0681 0.4796 0.1738 0.0536 0.0383 0.0026 0.0026 )	%  2 changed  1a
	  ( 1 0 0 0 0 0 0 0 0 )	%  2 changed  2 cons
	  ( 1 0 0 0 0 0 0 0 0 )	%  2 changed  2 s
	  ( 1 0 0 0 0 0 0 0 0 )	%  2 changed  2 v
	  ( 1 0 0 0 0 0 0 0 0 )	%  2 changed  fl
	  ( 1 0 0 0 0 0 0 0 0 )	%  2 changed  st
	  ( 1 0 0 0 0 0 0 0 0 )	%  2 changed  3 v
	  ( 1 0 0 0 0 0 0 0 0 ))	%  2 changed  stfl
	 (( 0.1583 0.0534 0.0635 0.4659 0.1694 0.0494 0.0353 0.0024 0.0024 )	%  3 changed  no
	  ( 0 1 0 0 0 0 0 0 0 )	%  3 changed  1a
	  ( 0 0 1 0 0 0 0 0 0 )	%  3 changed  2 cons
	  ( 0 0 0 1 0 0 0 0 0 )	%  3 changed  2 s
	  ( 0 0 0 0 1 0 0 0 0 )	%  3 changed  2 v
	  ( 0 0 0 0 0 1 0 0 0 )	%  3 changed  fl
	  ( 0 0 0 0 0 0 1 0 0 )	%  3 changed  st
	  ( 0 0 0 0 0 0 0 1 0 )	%  3 changed  3 v
	  ( 0 0 0 0 0 0 0 0 1 )));	%  3 changed  stfl
}

potential (SC | OH1)
{
 data = (( 0 0 1 )	%  no
	 ( 0 0 1 )	%  1 a
	 ( 0 1 0 )	%  2 cons
	 ( 0 1 0 )	%  2 s
	 ( 0 1 0 )	%  2 v
	 ( 1 0 0 )	%  fl
	 ( 1 0 0 )	%  st
	 ( 1 0 0 )	%  3 v
	 ( 1 0 0 ));	%  stfl
}

potential (OH0)
{
 data = ( 0.1672 0.0445 0.0635 0.4659 0.1694 0.0494 0.0353 0.0024 0.0024 );
}

potential (FC | OH0)
{
 data = (( 0 0 0 1 )	%  no
	 ( 0 0 1 0 )	%  1a
	 ( 0 1 0 0 )	%  2 cons
	 ( 0 1 0 0 )	%  2 s
	 ( 0 1 0 0 )	%  2 v
	 ( 1 0 0 0 )	%  fl
	 ( 1 0 0 0 )	%  st
	 ( 1 0 0 0 )	%  3 v
	 ( 1 0 0 0 ));	%  stfl
}
